digraph Tree {
node [shape=box] ;
0 [label="X[0] <= 1800.002\nmse = 0.032\nsamples = 10000\nvalue = 0.033"] ;
1 [label="X[0] <= 1472.991\nmse = 0.017\nsamples = 9712\nvalue = 0.018"] ;
0 -> 1 [labeldistance=2.5, labelangle=45, headlabel="True"] ;
2 [label="X[0] <= 1276.676\nmse = 0.007\nsamples = 9004\nvalue = 0.007"] ;
1 -> 2 ;
3 [label="X[0] <= 1099.007\nmse = 0.003\nsamples = 8154\nvalue = 0.003"] ;
2 -> 3 ;
4 [label="X[0] <= 959.111\nmse = 0.001\nsamples = 7085\nvalue = 0.001"] ;
3 -> 4 ;
5 [label="mse = 0.0\nsamples = 6061\nvalue = 0.0"] ;
4 -> 5 ;
6 [label="mse = 0.007\nsamples = 1024\nvalue = 0.007"] ;
4 -> 6 ;
7 [label="X[0] <= 1099.175\nmse = 0.016\nsamples = 1069\nvalue = 0.016"] ;
3 -> 7 ;
8 [label="mse = 0.0\nsamples = 1\nvalue = 1.0"] ;
7 -> 8 ;
9 [label="mse = 0.015\nsamples = 1068\nvalue = 0.015"] ;
7 -> 9 ;
10 [label="X[0] <= 1276.834\nmse = 0.042\nsamples = 850\nvalue = 0.044"] ;
2 -> 10 ;
11 [label="mse = 0.0\nsamples = 1\nvalue = 1.0"] ;
10 -> 11 ;
12 [label="X[1] <= 34696.836\nmse = 0.041\nsamples = 849\nvalue = 0.042"] ;
10 -> 12 ;
13 [label="mse = 0.028\nsamples = 485\nvalue = 0.029"] ;
12 -> 13 ;
14 [label="mse = 0.057\nsamples = 364\nvalue = 0.06"] ;
12 -> 14 ;
15 [label="X[0] <= 1698.559\nmse = 0.128\nsamples = 708\nvalue = 0.151"] ;
1 -> 15 ;
16 [label="X[1] <= 61158.313\nmse = 0.111\nsamples = 549\nvalue = 0.128"] ;
15 -> 16 ;
17 [label="X[0] <= 1473.334\nmse = 0.108\nsamples = 543\nvalue = 0.123"] ;
16 -> 17 ;
18 [label="mse = 0.0\nsamples = 1\nvalue = 1.0"] ;
17 -> 18 ;
19 [label="mse = 0.107\nsamples = 542\nvalue = 0.122"] ;
17 -> 19 ;
20 [label="X[0] <= 1635.544\nmse = 0.25\nsamples = 6\nvalue = 0.5"] ;
16 -> 20 ;
21 [label="mse = 0.188\nsamples = 4\nvalue = 0.25"] ;
20 -> 21 ;
22 [label="mse = 0.0\nsamples = 2\nvalue = 1.0"] ;
20 -> 22 ;
23 [label="X[0] <= 1699.064\nmse = 0.179\nsamples = 159\nvalue = 0.233"] ;
15 -> 23 ;
24 [label="mse = 0.0\nsamples = 1\nvalue = 1.0"] ;
23 -> 24 ;
25 [label="X[1] <= 16959.873\nmse = 0.176\nsamples = 158\nvalue = 0.228"] ;
23 -> 25 ;
26 [label="mse = 0.23\nsamples = 25\nvalue = 0.36"] ;
25 -> 26 ;
27 [label="mse = 0.162\nsamples = 133\nvalue = 0.203"] ;
25 -> 27 ;
28 [label="X[0] <= 1971.915\nmse = 0.246\nsamples = 288\nvalue = 0.562"] ;
0 -> 28 [labeldistance=2.5, labelangle=-45, headlabel="False"] ;
29 [label="X[1] <= 27401.201\nmse = 0.244\nsamples = 170\nvalue = 0.424"] ;
28 -> 29 ;
30 [label="X[1] <= 19420.725\nmse = 0.215\nsamples = 102\nvalue = 0.314"] ;
29 -> 30 ;
31 [label="X[0] <= 1950.697\nmse = 0.236\nsamples = 63\nvalue = 0.381"] ;
30 -> 31 ;
32 [label="mse = 0.226\nsamples = 58\nvalue = 0.345"] ;
31 -> 32 ;
33 [label="mse = 0.16\nsamples = 5\nvalue = 0.8"] ;
31 -> 33 ;
34 [label="X[0] <= 1816.173\nmse = 0.163\nsamples = 39\nvalue = 0.205"] ;
30 -> 34 ;
35 [label="mse = 0.25\nsamples = 8\nvalue = 0.5"] ;
34 -> 35 ;
36 [label="mse = 0.112\nsamples = 31\nvalue = 0.129"] ;
34 -> 36 ;
37 [label="X[0] <= 1889.562\nmse = 0.242\nsamples = 68\nvalue = 0.588"] ;
29 -> 37 ;
38 [label="X[0] <= 1806.137\nmse = 0.25\nsamples = 43\nvalue = 0.488"] ;
37 -> 38 ;
39 [label="mse = 0.0\nsamples = 5\nvalue = 1.0"] ;
38 -> 39 ;
40 [label="mse = 0.244\nsamples = 38\nvalue = 0.421"] ;
38 -> 40 ;
41 [label="X[0] <= 1964.903\nmse = 0.182\nsamples = 25\nvalue = 0.76"] ;
37 -> 41 ;
42 [label="mse = 0.149\nsamples = 22\nvalue = 0.818"] ;
41 -> 42 ;
43 [label="mse = 0.222\nsamples = 3\nvalue = 0.333"] ;
41 -> 43 ;
44 [label="X[0] <= 2134.475\nmse = 0.181\nsamples = 118\nvalue = 0.763"] ;
28 -> 44 ;
45 [label="X[0] <= 2133.605\nmse = 0.209\nsamples = 74\nvalue = 0.703"] ;
44 -> 45 ;
46 [label="X[0] <= 1990.003\nmse = 0.201\nsamples = 72\nvalue = 0.722"] ;
45 -> 46 ;
47 [label="mse = 0.0\nsamples = 7\nvalue = 1.0"] ;
46 -> 47 ;
48 [label="mse = 0.213\nsamples = 65\nvalue = 0.692"] ;
46 -> 48 ;
49 [label="mse = 0.0\nsamples = 2\nvalue = 0.0"] ;
45 -> 49 ;
50 [label="X[1] <= 9801.186\nmse = 0.118\nsamples = 44\nvalue = 0.864"] ;
44 -> 50 ;
51 [label="mse = 0.0\nsamples = 1\nvalue = 0.0"] ;
50 -> 51 ;
52 [label="X[0] <= 2300.255\nmse = 0.103\nsamples = 43\nvalue = 0.884"] ;
50 -> 52 ;
53 [label="mse = 0.069\nsamples = 27\nvalue = 0.926"] ;
52 -> 53 ;
54 [label="mse = 0.152\nsamples = 16\nvalue = 0.812"] ;
52 -> 54 ;
}